<?xml version="1.0"?>
<opencv_storage>
<cascade>
  <stageType>BOOST</stageType>
  <featureType>HAAR</featureType>
  <height>15</height>
  <width>40</width>
  <stageParams>
    <boostType>GAB</boostType>
    <minHitRate>9.9500000476837158e-01</minHitRate>
    <maxFalseAlarm>5.0000000000000000e-01</maxFalseAlarm>
    <weightTrimRate>9.4999999999999996e-01</weightTrimRate>
    <maxDepth>1</maxDepth>
    <maxWeakCount>100</maxWeakCount></stageParams>
  <featureParams>
    <maxCatCount>0</maxCatCount>
    <featSize>1</featSize>
    <mode>BASIC</mode></featureParams>
  <stageNum>20</stageNum>
  <stages>
    <!-- stage 0 -->
    <_>
      <maxWeakCount>6</maxWeakCount>
      <stageThreshold>-1.7677063941955566e+00</stageThreshold>
      <weakClassifiers>
        <_>
          <internalNodes>
            0 -1 65 2.4147230386734009e-01</internalNodes>
          <leafValues>
            -8.5553473234176636e-01 7.1794873476028442e-01</leafValues></_>
        <_>
          <internalNodes>
            0 -1 35 -1.3344118371605873e-02</internalNodes>
          <leafValues>
            3.3710926771163940e-01 -6.0853934288024902e-01</leafValues></_>
        <_>
          <internalNodes>
            0 -1 41 2.2451791912317276e-02</internalNodes>
          <leafValues>
            -4.0664118528366089e-01 6.9354480504989624e-01</leafValues></_>
        <_>
          <internalNodes>
            0 -1 78 -3.0488461256027222e-02</internalNodes>
          <leafValues>
            6.9954001903533936e-01 -3.3104422688484192e-01</leafValues></_>
        <_>
          <internalNodes>
            0 -1 45 1.0552157461643219e-01</internalNodes>
          <leafValues>
            2.3783275485038757e-01 -9.7433000802993774e-01</leafValues></_>
        <_>
          <internalNodes>
            0 -1 93 -6.9320499897003174e-02</internalNodes>
          <leafValues>
            -9.0396565198898315e-01 1.9627611339092255e-01</leafValues></_></weakClassifiers></_>
    <!-- stage 1 -->
    <_>
      <maxWeakCount>7</maxWeakCount>
      <stageThreshold>-1.4989892244338989e+00</stageThreshold>
      <weakClassifiers>
        <_>
          <internalNodes>
            0 -1 74 4.5178127288818359e-01</internalNodes>
          <leafValues>
            -8.3582091331481934e-01 5.5555558204650879e-01</leafValues></_>
        <_>
          <internalNodes>
            0 -1 98 4.4373380951583385e-03</internalNodes>
          <leafValues>
            -5.3179830312728882e-01 5.5308550596237183e-01</leafValues></_>
        <_>
          <internalNodes>
            0 -1 99 -5.3758397698402405e-03</internalNodes>
          <leafValues>
            7.5747388601303101e-01 -3.3419865369796753e-01</leafValues></_>
        <_>
          <internalNodes>
            0 -1 87 -5.6022796779870987e-03</internalNodes>
          <leafValues>
            7.0799934864044189e-01 -3.0661123991012573e-01</leafValues></_>
        <_>
          <internalNodes>
            0 -1 61 -9.3712452799081802e-03</internalNodes>
          <leafValues>
            -9.3688952922821045e-01 2.7365589141845703e-01</leafValues></_>
        <_>
          <internalNodes>
            0 -1 122 -2.1877367049455643e-02</internalNodes>
          <leafValues>
            5.5702292919158936e-01 -3.8959357142448425e-01</leafValues></_>
        <_>
          <internalNodes>
            0 -1 110 2.5763185694813728e-03</internalNodes>
          <leafValues>
            -3.2123890519142151e-01 6.3383877277374268e-01</leafValues></_></weakClassifiers></_>
    <!-- stage 2 -->
    <_>
      <maxWeakCount>5</maxWeakCount>
      <stageThreshold>-1.2591093778610229e+00</stageThreshold>
      <weakClassifiers>
        <_>
          <internalNodes>
            0 -1 66 2.3908264935016632e-01</internalNodes>
          <leafValues>
            -8.1549817323684692e-01 4.6666666865348816e-01</leafValues></_>
        <_>
          <internalNodes>
            0 -1 54 -2.0104739814996719e-02</internalNodes>
          <leafValues>
            5.9305930137634277e-01 -4.6992784738540649e-01</leafValues></_>
        <_>
          <internalNodes>
            0 -1 125 -5.5912719108164310e-04</internalNodes>
          <leafValues>
            -9.0468204021453857e-01 1.9864232838153839e-01</leafValues></_>
        <_>
          <internalNodes>
            0 -1 150 4.3850946240127087e-03</internalNodes>
          <leafValues>
            -3.0395135283470154e-01 6.9887518882751465e-01</leafValues></_>
        <_>
          <internalNodes>
            0 -1 104 1.0669931769371033e-02</internalNodes>
          <leafValues>
            2.7577701210975647e-01 -8.3086365461349487e-01</leafValues></_></weakClassifiers></_>
    <!-- stage 3 -->
    <_>
      <maxWeakCount>8</maxWeakCount>
      <stageThreshold>-1.7921220064163208e+00</stageThreshold>
      <weakClassifiers>
        <_>
          <internalNodes>
            0 -1 59 4.4782347977161407e-03</internalNodes>
          <leafValues>
            -8.2380503416061401e-01 2.9870128631591797e-01</leafValues></_>
        <_>
          <internalNodes>
            0 -1 57 -4.9496693536639214e-03</internalNodes>
          <leafValues>
            7.0101368427276611e-01 -5.0458079576492310e-01</leafValues></_>
        <_>
          <internalNodes>
            0 -1 161 -2.0130481570959091e-03</internalNodes>
          <leafValues>
            5.1230770349502563e-01 -3.4209024906158447e-01</leafValues></_>
        <_>
          <internalNodes>
            0 -1 88 1.9203312695026398e-03</internalNodes>
          <leafValues>
            2.4020364880561829e-01 -7.7703076601028442e-01</leafValues></_>
        <_>
          <internalNodes>
            0 -1 48 -1.7824026290327311e-03</internalNodes>
          <leafValues>
            5.2016091346740723e-01 -3.3644723892211914e-01</leafValues></_>
        <_>
          <internalNodes>
            0 -1 137 1.0465052910149097e-02</internalNodes>
          <leafValues>
            1.9756540656089783e-01 -8.5551458597183228e-01</leafValues></_>
        <_>
          <internalNodes>
            0 -1 64 -4.2311158031225204e-03</internalNodes>
          <leafValues>
            6.0263472795486450e-01 -3.2849627733230591e-01</leafValues></_>
        <_>
          <internalNodes>
            0 -1 90 -6.6946982406079769e-04</internalNodes>
          <leafValues>
            -7.5107961893081665e-01 2.5971126556396484e-01</leafValues></_></weakClassifiers></_>
    <!-- stage 4 -->
    <_>
      <maxWeakCount>7</maxWeakCount>
      <stageThreshold>-1.5089993476867676e+00</stageThreshold>
      <weakClassifiers>
        <_>
          <internalNodes>
            0 -1 63 4.2659682035446167e-01</internalNodes>
          <leafValues>
            -8.2039290666580200e-01 2.8000000119209290e-01</leafValues></_>
        <_>
          <internalNodes>
            0 -1 17 2.1957807242870331e-02</internalNodes>
          <leafValues>
            -5.3705239295959473e-01 1.7442549765110016e-01</leafValues></_>
        <_>
          <internalNodes>
            0 -1 22 1.0815502610057592e-03</internalNodes>
          <leafValues>
            1.5762984752655029e-01 -7.9613530635833740e-01</leafValues></_>
        <_>
          <internalNodes>
            0 -1 73 -1.9908719696104527e-03</internalNodes>
          <leafValues>
            -8.0348235368728638e-01 1.3509185612201691e-01</leafValues></_>
        <_>
          <internalNodes>
            0 -1 77 1.4232465066015720e-02</internalNodes>
          <leafValues>
            -2.2672641277313232e-01 6.5259307622909546e-01</leafValues></_>
        <_>
          <internalNodes>
            0 -1 76 1.5277487691491842e-03</internalNodes>
          <leafValues>
            2.1461951732635498e-01 -7.5387215614318848e-01</leafValues></_>
        <_>
          <internalNodes>
            0 -1 53 -6.3118743710219860e-03</internalNodes>
          <leafValues>
            5.3632277250289917e-01 -2.6959902048110962e-01</leafValues></_></weakClassifiers></_>
    <!-- stage 5 -->
    <_>
      <maxWeakCount>10</maxWeakCount>
      <stageThreshold>-1.7754968404769897e+00</stageThreshold>
      <weakClassifiers>
        <_>
          <internalNodes>
            0 -1 42 -4.1595377027988434e-02</internalNodes>
          <leafValues>
            -2.4390242993831635e-02 -8.0414313077926636e-01</leafValues></_>
        <_>
          <internalNodes>
            0 -1 119 -7.4131228029727936e-04</internalNodes>
          <leafValues>
            -8.5131007432937622e-01 -6.0044154524803162e-02</leafValues></_>
        <_>
          <internalNodes>
            0 -1 7 2.8053568676114082e-02</internalNodes>
          <leafValues>
            -3.7475949525833130e-01 3.6019802093505859e-01</leafValues></_>
        <_>
          <internalNodes>
            0 -1 39 2.3064474225975573e-04</internalNodes>
          <leafValues>
            1.5665784478187561e-01 -8.8741832971572876e-01</leafValues></_>
        <_>
          <internalNodes>
            0 -1 121 -4.1390047408640385e-03</internalNodes>
          <leafValues>
            5.9185028076171875e-01 -2.3623180389404297e-01</leafValues></_>
        <_>
          <internalNodes>
            0 -1 120 4.1794949211180210e-03</internalNodes>
          <leafValues>
            -2.6817029714584351e-01 6.6633260250091553e-01</leafValues></_>
        <_>
          <internalNodes>
            0 -1 39 -3.6487675970420241e-04</internalNodes>
          <leafValues>
            -8.3107626438140869e-01 2.1680250763893127e-01</leafValues></_>
        <_>
          <internalNodes>
            0 -1 94 4.5338049530982971e-03</internalNodes>
          <leafValues>
            -3.1465491652488708e-01 5.1652103662490845e-01</leafValues></_>
        <_>
          <internalNodes>
            0 -1 84 5.9161446988582611e-03</internalNodes>
          <leafValues>
            -2.4198007583618164e-01 6.2052047252655029e-01</leafValues></_>
        <_>
          <internalNodes>
            0 -1 89 3.5920742084272206e-04</internalNodes>
          <leafValues>
            2.0733508467674255e-01 -9.1590172052383423e-01</leafValues></_></weakClassifiers></_>
    <!-- stage 6 -->
    <_>
      <maxWeakCount>5</maxWeakCount>
      <stageThreshold>-1.6046555042266846e+00</stageThreshold>
      <weakClassifiers>
        <_>
          <internalNodes>
            0 -1 117 2.6609464548528194e-03</internalNodes>
          <leafValues>
            -8.4909266233444214e-01 3.4020617604255676e-01</leafValues></_>
        <_>
          <internalNodes>
            0 -1 114 -2.9107406735420227e-03</internalNodes>
          <leafValues>
            7.1012681722640991e-01 -6.4330983161926270e-01</leafValues></_>
        <_>
          <internalNodes>
            0 -1 148 2.8949876650585793e-05</internalNodes>
          <leafValues>
            -4.2154476046562195e-01 6.7490112781524658e-01</leafValues></_>
        <_>
          <internalNodes>
            0 -1 56 8.6077547166496515e-04</internalNodes>
          <leafValues>
            -3.3182367682456970e-01 7.0641458034515381e-01</leafValues></_>
        <_>
          <internalNodes>
            0 -1 168 2.7665668312693015e-05</internalNodes>
          <leafValues>
            -3.5726481676101685e-01 6.4111536741256714e-01</leafValues></_></weakClassifiers></_>
    <!-- stage 7 -->
    <_>
      <maxWeakCount>5</maxWeakCount>
      <stageThreshold>-1.5946302413940430e+00</stageThreshold>
      <weakClassifiers>
        <_>
          <internalNodes>
            0 -1 144 -1.6264349687844515e-03</internalNodes>
          <leafValues>
            2.7058824896812439e-01 -8.3002835512161255e-01</leafValues></_>
        <_>
          <internalNodes>
            0 -1 107 -2.1929454524070024e-03</internalNodes>
          <leafValues>
            4.8090696334838867e-01 -5.8921504020690918e-01</leafValues></_>
        <_>
          <internalNodes>
            0 -1 24 1.3037033379077911e-02</internalNodes>
          <leafValues>
            -4.8349595069885254e-01 5.0600367784500122e-01</leafValues></_>
        <_>
          <internalNodes>
            0 -1 107 1.9050654955208302e-03</internalNodes>
          <leafValues>
            -3.0335515737533569e-01 6.3305217027664185e-01</leafValues></_>
        <_>
          <internalNodes>
            0 -1 51 -1.1258190497756004e-03</internalNodes>
          <leafValues>
            6.1146420240402222e-01 -2.9418674111366272e-01</leafValues></_></weakClassifiers></_>
    <!-- stage 8 -->
    <_>
      <maxWeakCount>8</maxWeakCount>
      <stageThreshold>-1.7778047323226929e+00</stageThreshold>
      <weakClassifiers>
        <_>
          <internalNodes>
            0 -1 139 3.4116804599761963e-03</internalNodes>
          <leafValues>
            -7.9816514253616333e-01 2.5925925374031067e-01</leafValues></_>
        <_>
          <internalNodes>
            0 -1 135 5.8493586257100105e-03</internalNodes>
          <leafValues>
            -4.4664326310157776e-01 5.0011044740676880e-01</leafValues></_>
        <_>
          <internalNodes>
            0 -1 157 -7.0798308588564396e-03</internalNodes>
          <leafValues>
            2.6776841282844543e-01 -4.8385283350944519e-01</leafValues></_>
        <_>
          <internalNodes>
            0 -1 97 6.5919253975152969e-03</internalNodes>
          <leafValues>
            -2.1230417490005493e-01 5.8761709928512573e-01</leafValues></_>
        <_>
          <internalNodes>
            0 -1 95 -5.7010920718312263e-03</internalNodes>
          <leafValues>
            6.0360598564147949e-01 -2.3033310472965240e-01</leafValues></_>
        <_>
          <internalNodes>
            0 -1 30 -2.3688056971877813e-03</internalNodes>
          <leafValues>
            4.2324623465538025e-01 -2.9127615690231323e-01</leafValues></_>
        <_>
          <internalNodes>
            0 -1 152 -4.2445119470357895e-03</internalNodes>
          <leafValues>
            5.3275996446609497e-01 -2.2097547352313995e-01</leafValues></_>
        <_>
          <internalNodes>
            0 -1 75 -3.2708104117773473e-04</internalNodes>
          <leafValues>
            -8.6580538749694824e-01 1.5200990438461304e-01</leafValues></_></weakClassifiers></_>
    <!-- stage 9 -->
    <_>
      <maxWeakCount>9</maxWeakCount>
      <stageThreshold>-1.4915727376937866e+00</stageThreshold>
      <weakClassifiers>
        <_>
          <internalNodes>
            0 -1 31 -1.3002058863639832e-01</internalNodes>
          <leafValues>
            -4.2253520339727402e-02 -7.9496735334396362e-01</leafValues></_>
        <_>
          <internalNodes>
            0 -1 40 3.3039093017578125e-02</internalNodes>
          <leafValues>
            -3.8674983382225037e-01 5.7625216245651245e-01</leafValues></_>
        <_>
          <internalNodes>
            0 -1 142 6.3119921833276749e-03</internalNodes>
          <leafValues>
            1.4676678180694580e-01 -8.8251310586929321e-01</leafValues></_>
        <_>
          <internalNodes>
            0 -1 171 -3.8361258804798126e-02</internalNodes>
          <leafValues>
            6.3255894184112549e-01 -2.1891961991786957e-01</leafValues></_>
        <_>
          <internalNodes>
            0 -1 138 5.7129201013594866e-04</internalNodes>
          <leafValues>
            1.2599673867225647e-01 -9.5798128843307495e-01</leafValues></_>
        <_>
          <internalNodes>
            0 -1 140 2.5228166487067938e-04</internalNodes>
          <leafValues>
            1.3837552070617676e-01 -6.6787952184677124e-01</leafValues></_>
        <_>
          <internalNodes>
            0 -1 169 -4.4928211718797684e-03</internalNodes>
          <leafValues>
            4.5843374729156494e-01 -2.4938577413558960e-01</leafValues></_>
        <_>
          <internalNodes>
            0 -1 4 2.7225822210311890e-02</internalNodes>
          <leafValues>
            -1.5599884092807770e-01 7.0576864480972290e-01</leafValues></_>
        <_>
          <internalNodes>
            0 -1 141 3.8723711622878909e-04</internalNodes>
          <leafValues>
            1.7954653501510620e-01 -6.5490573644638062e-01</leafValues></_></weakClassifiers></_>
    <!-- stage 10 -->
    <_>
      <maxWeakCount>9</maxWeakCount>
      <stageThreshold>-1.3658431768417358e+00</stageThreshold>
      <weakClassifiers>
        <_>
          <internalNodes>
            0 -1 85 -4.4748969376087189e-03</internalNodes>
          <leafValues>
            1.9047619402408600e-01 -7.8402906656265259e-01</leafValues></_>
        <_>
          <internalNodes>
            0 -1 161 -4.0344120934605598e-03</internalNodes>
          <leafValues>
            3.3248835802078247e-01 -4.5725569128990173e-01</leafValues></_>
        <_>
          <internalNodes>
            0 -1 3 1.7050258815288544e-02</internalNodes>
          <leafValues>
            -3.4112092852592468e-01 3.1445598602294922e-01</leafValues></_>
        <_>
          <internalNodes>
            0 -1 25 -3.6150129744783044e-04</internalNodes>
          <leafValues>
            -8.9072322845458984e-01 1.3207793235778809e-01</leafValues></_>
        <_>
          <internalNodes>
            0 -1 105 1.5825469046831131e-02</internalNodes>
          <leafValues>
            -1.5886536240577698e-01 6.9725936651229858e-01</leafValues></_>
        <_>
          <internalNodes>
            0 -1 46 -1.6416933387517929e-02</internalNodes>
          <leafValues>
            5.0994676351547241e-01 -2.1980036795139313e-01</leafValues></_>
        <_>
          <internalNodes>
            0 -1 147 -9.0187427122145891e-04</internalNodes>
          <leafValues>
            -6.5137159824371338e-01 1.7714078724384308e-01</leafValues></_>
        <_>
          <internalNodes>
            0 -1 162 5.9430655092000961e-03</internalNodes>
          <leafValues>
            -1.9082358479499817e-01 6.3778346776962280e-01</leafValues></_>
        <_>
          <internalNodes>
            0 -1 165 4.8390263691544533e-03</internalNodes>
          <leafValues>
            -1.7874380946159363e-01 5.8595937490463257e-01</leafValues></_></weakClassifiers></_>
    <!-- stage 11 -->
    <_>
      <maxWeakCount>13</maxWeakCount>
      <stageThreshold>-1.7232207059860229e+00</stageThreshold>
      <weakClassifiers>
        <_>
          <internalNodes>
            0 -1 102 -3.5883626341819763e-01</internalNodes>
          <leafValues>
            6.0000002384185791e-01 -7.6616472005844116e-01</leafValues></_>
        <_>
          <internalNodes>
            0 -1 9 -3.7524261279031634e-04</internalNodes>
          <leafValues>
            -7.2025388479232788e-01 -7.4454143643379211e-02</leafValues></_>
        <_>
          <internalNodes>
            0 -1 158 -6.2527069821953773e-03</internalNodes>
          <leafValues>
            4.2145547270774841e-01 -2.0537477731704712e-01</leafValues></_>
        <_>
          <internalNodes>
            0 -1 176 -1.3714183121919632e-02</internalNodes>
          <leafValues>
            5.1505327224731445e-01 -1.5936803817749023e-01</leafValues></_>
        <_>
          <internalNodes>
            0 -1 128 4.0386905893683434e-03</internalNodes>
          <leafValues>
            -1.6655761003494263e-01 4.5968988537788391e-01</leafValues></_>
        <_>
          <internalNodes>
            0 -1 27 -5.4293215274810791e-02</internalNodes>
          <leafValues>
            4.6966078877449036e-01 -1.6759544610977173e-01</leafValues></_>
        <_>
          <internalNodes>
            0 -1 28 -1.3727007433772087e-02</internalNodes>
          <leafValues>
            4.1010996699333191e-01 -2.3852072656154633e-01</leafValues></_>
        <_>
          <internalNodes>
            0 -1 43 2.5569048011675477e-04</internalNodes>
          <leafValues>
            1.5186274051666260e-01 -6.4688700437545776e-01</leafValues></_>
        <_>
          <internalNodes>
            0 -1 67 -2.4426924064755440e-03</internalNodes>
          <leafValues>
            4.5817455649375916e-01 -2.0554444193840027e-01</leafValues></_>
        <_>
          <internalNodes>
            0 -1 44 -2.9825081583112478e-04</internalNodes>
          <leafValues>
            -5.6355571746826172e-01 1.6473063826560974e-01</leafValues></_>
        <_>
          <internalNodes>
            0 -1 38 -1.6916763037443161e-02</internalNodes>
          <leafValues>
            -5.9466147422790527e-01 1.3020601868629456e-01</leafValues></_>
        <_>
          <internalNodes>
            0 -1 86 2.3006326518952847e-03</internalNodes>
          <leafValues>
            -2.1716560423374176e-01 4.2649915814399719e-01</leafValues></_>
        <_>
          <internalNodes>
            0 -1 186 4.3616388575173914e-04</internalNodes>
          <leafValues>
            1.3218154013156891e-01 -7.4741977453231812e-01</leafValues></_></weakClassifiers></_>
    <!-- stage 12 -->
    <_>
      <maxWeakCount>13</maxWeakCount>
      <stageThreshold>-1.6490942239761353e+00</stageThreshold>
      <weakClassifiers>
        <_>
          <internalNodes>
            0 -1 156 7.6049201190471649e-02</internalNodes>
          <leafValues>
            -7.7457165718078613e-01 8.5714288055896759e-02</leafValues></_>
        <_>
          <internalNodes>
            0 -1 58 1.3588229194283485e-03</internalNodes>
          <leafValues>
            -4.0579941868782043e-01 1.7019696533679962e-01</leafValues></_>
        <_>
          <internalNodes>
            0 -1 71 4.7023463994264603e-03</internalNodes>
          <leafValues>
            -2.0219217240810394e-01 4.7341579198837280e-01</leafValues></_>
        <_>
          <internalNodes>
            0 -1 179 1.5099617303349078e-04</internalNodes>
          <leafValues>
            1.4722692966461182e-01 -5.5697482824325562e-01</leafValues></_>
        <_>
          <internalNodes>
            0 -1 15 -9.4427876174449921e-03</internalNodes>
          <leafValues>
            -1. 1.1612512171268463e-01</leafValues></_>
        <_>
          <internalNodes>
            0 -1 145 9.1615524142980576e-03</internalNodes>
          <leafValues>
            -1.8630535900592804e-01 5.5405080318450928e-01</leafValues></_>
        <_>
          <internalNodes>
            0 -1 100 -2.6717563159763813e-03</internalNodes>
          <leafValues>
            3.6714562773704529e-01 -2.2512620687484741e-01</leafValues></_>
        <_>
          <internalNodes>
            0 -1 10 1.9206413999199867e-03</internalNodes>
          <leafValues>
            1.1896762251853943e-01 -6.8410670757293701e-01</leafValues></_>
        <_>
          <internalNodes>
            0 -1 133 -5.2235671319067478e-04</internalNodes>
          <leafValues>
            3.0658271908760071e-01 -2.8643915057182312e-01</leafValues></_>
        <_>
          <internalNodes>
            0 -1 5 1.6309052007272840e-03</internalNodes>
          <leafValues>
            -3.1374397873878479e-01 2.8594836592674255e-01</leafValues></_>
        <_>
          <internalNodes>
            0 -1 21 6.7979551386088133e-04</internalNodes>
          <leafValues>
            -1.8885661661624908e-01 5.1665443181991577e-01</leafValues></_>
        <_>
          <internalNodes>
            0 -1 180 -2.4798312224447727e-03</internalNodes>
          <leafValues>
            4.2774847149848938e-01 -1.9627258181571960e-01</leafValues></_>
        <_>
          <internalNodes>
            0 -1 160 2.6806979440152645e-04</internalNodes>
          <leafValues>
            1.5487144887447357e-01 -6.4543503522872925e-01</leafValues></_></weakClassifiers></_>
    <!-- stage 13 -->
    <_>
      <maxWeakCount>11</maxWeakCount>
      <stageThreshold>-1.5123319625854492e+00</stageThreshold>
      <weakClassifiers>
        <_>
          <internalNodes>
            0 -1 23 2.8170773759484291e-02</internalNodes>
          <leafValues>
            -7.9727095365524292e-01 -3.2203391194343567e-01</leafValues></_>
        <_>
          <internalNodes>
            0 -1 159 -1.1130815837532282e-03</internalNodes>
          <leafValues>
            1.1637108027935028e-01 -4.3706592917442322e-01</leafValues></_>
        <_>
          <internalNodes>
            0 -1 155 -3.0690450221300125e-03</internalNodes>
          <leafValues>
            3.4780538082122803e-01 -2.2102399170398712e-01</leafValues></_>
        <_>
          <internalNodes>
            0 -1 92 1.5510901808738708e-02</internalNodes>
          <leafValues>
            9.8177321255207062e-02 -8.1893920898437500e-01</leafValues></_>
        <_>
          <internalNodes>
            0 -1 146 2.1206038072705269e-02</internalNodes>
          <leafValues>
            1.1477021872997284e-01 -7.3693978786468506e-01</leafValues></_>
        <_>
          <internalNodes>
            0 -1 149 1.8484161410015076e-04</internalNodes>
          <leafValues>
            -3.0459740757942200e-01 2.8994199633598328e-01</leafValues></_>
        <_>
          <internalNodes>
            0 -1 103 1.4504244318231940e-03</internalNodes>
          <leafValues>
            -2.1904057264328003e-01 3.6556845903396606e-01</leafValues></_>
        <_>
          <internalNodes>
            0 -1 8 -4.7003728104755282e-04</internalNodes>
          <leafValues>
            -7.1664136648178101e-01 9.4711080193519592e-02</leafValues></_>
        <_>
          <internalNodes>
            0 -1 36 -3.0093398891040124e-05</internalNodes>
          <leafValues>
            2.7898302674293518e-01 -2.9164102673530579e-01</leafValues></_>
        <_>
          <internalNodes>
            0 -1 184 -7.0721254451200366e-04</internalNodes>
          <leafValues>
            -6.3841199874877930e-01 1.0733836144208908e-01</leafValues></_>
        <_>
          <internalNodes>
            0 -1 112 -1.0029258206486702e-02</internalNodes>
          <leafValues>
            -6.6956764459609985e-01 1.2238146364688873e-01</leafValues></_></weakClassifiers></_>
    <!-- stage 14 -->
    <_>
      <maxWeakCount>13</maxWeakCount>
      <stageThreshold>-1.4048900604248047e+00</stageThreshold>
      <weakClassifiers>
        <_>
          <internalNodes>
            0 -1 0 2.3656301200389862e-02</internalNodes>
          <leafValues>
            -7.7497750520706177e-01 1.5151515603065491e-01</leafValues></_>
        <_>
          <internalNodes>
            0 -1 132 1.1890404857695103e-03</internalNodes>
          <leafValues>
            -4.1612604260444641e-01 1.7799699306488037e-01</leafValues></_>
        <_>
          <internalNodes>
            0 -1 127 1.3640671968460083e-02</internalNodes>
          <leafValues>
            9.4880796968936920e-02 -7.0631039142608643e-01</leafValues></_>
        <_>
          <internalNodes>
            0 -1 16 2.8369892388582230e-02</internalNodes>
          <leafValues>
            -2.2314584255218506e-01 3.2096078991889954e-01</leafValues></_>
        <_>
          <internalNodes>
            0 -1 62 1.4776762691326439e-04</internalNodes>
          <leafValues>
            1.1601721495389938e-01 -6.5908306837081909e-01</leafValues></_>
        <_>
          <internalNodes>
            0 -1 129 3.4180821385234594e-03</internalNodes>
          <leafValues>
            -1.9903689622879028e-01 4.2130416631698608e-01</leafValues></_>
        <_>
          <internalNodes>
            0 -1 177 9.7217422444373369e-04</internalNodes>
          <leafValues>
            -1.5130412578582764e-01 5.2822548151016235e-01</leafValues></_>
        <_>
          <internalNodes>
            0 -1 50 -3.0991468578577042e-02</internalNodes>
          <leafValues>
            -7.9760980606079102e-01 1.1644414812326431e-01</leafValues></_>
        <_>
          <internalNodes>
            0 -1 14 -5.6972582824528217e-03</internalNodes>
          <leafValues>
            4.5145890116691589e-01 -1.7334958910942078e-01</leafValues></_>
        <_>
          <internalNodes>
            0 -1 33 1.1119784321635962e-03</internalNodes>
          <leafValues>
            -2.9173293709754944e-01 2.6822540163993835e-01</leafValues></_>
        <_>
          <internalNodes>
            0 -1 37 5.9330025687813759e-03</internalNodes>
          <leafValues>
            1.3950581848621368e-01 -5.9625381231307983e-01</leafValues></_>
        <_>
          <internalNodes>
            0 -1 20 3.3319462090730667e-04</internalNodes>
          <leafValues>
            7.9139605164527893e-02 -7.9549944400787354e-01</leafValues></_>
        <_>
          <internalNodes>
            0 -1 163 -3.3882781281135976e-04</internalNodes>
          <leafValues>
            2.7879530191421509e-01 -2.7917265892028809e-01</leafValues></_></weakClassifiers></_>
    <!-- stage 15 -->
    <_>
      <maxWeakCount>12</maxWeakCount>
      <stageThreshold>-1.4988763332366943e+00</stageThreshold>
      <weakClassifiers>
        <_>
          <internalNodes>
            0 -1 173 2.8441758826375008e-02</internalNodes>
          <leafValues>
            -8.0040735006332397e-01 -4.3209877610206604e-01</leafValues></_>
        <_>
          <internalNodes>
            0 -1 2 2.4548096582293510e-02</internalNodes>
          <leafValues>
            -3.7996527552604675e-01 1.7245081067085266e-01</leafValues></_>
        <_>
          <internalNodes>
            0 -1 26 -3.2421057112514973e-03</internalNodes>
          <leafValues>
            3.5056632757186890e-01 -2.0195624232292175e-01</leafValues></_>
        <_>
          <internalNodes>
            0 -1 164 4.2728282511234283e-02</internalNodes>
          <leafValues>
            -1.2183522433042526e-01 6.0566544532775879e-01</leafValues></_>
        <_>
          <internalNodes>
            0 -1 113 3.5713553428649902e-02</internalNodes>
          <leafValues>
            -2.1231502294540405e-01 3.3873230218887329e-01</leafValues></_>
        <_>
          <internalNodes>
            0 -1 91 2.5129184126853943e-02</internalNodes>
          <leafValues>
            1.0302054136991501e-01 -7.1531039476394653e-01</leafValues></_>
        <_>
          <internalNodes>
            0 -1 47 9.9749520421028137e-02</internalNodes>
          <leafValues>
            8.5244975984096527e-02 -9.5405125617980957e-01</leafValues></_>
        <_>
          <internalNodes>
            0 -1 32 -3.1321998685598373e-03</internalNodes>
          <leafValues>
            2.3439635336399078e-01 -2.9634311795234680e-01</leafValues></_>
        <_>
          <internalNodes>
            0 -1 130 5.8431951329112053e-03</internalNodes>
          <leafValues>
            -1.8976774811744690e-01 3.8950693607330322e-01</leafValues></_>
        <_>
          <internalNodes>
            0 -1 134 -3.2259826548397541e-03</internalNodes>
          <leafValues>
            4.2577168345451355e-01 -1.6660659015178680e-01</leafValues></_>
        <_>
          <internalNodes>
            0 -1 108 -3.8581580156460404e-04</internalNodes>
          <leafValues>
            -6.6975653171539307e-01 1.1438751220703125e-01</leafValues></_>
        <_>
          <internalNodes>
            0 -1 83 -1.5107798390090466e-04</internalNodes>
          <leafValues>
            -5.4234689474105835e-01 1.0838933289051056e-01</leafValues></_></weakClassifiers></_>
    <!-- stage 16 -->
    <_>
      <maxWeakCount>11</maxWeakCount>
      <stageThreshold>-1.5771601200103760e+00</stageThreshold>
      <weakClassifiers>
        <_>
          <internalNodes>
            0 -1 154 -5.9057306498289108e-03</internalNodes>
          <leafValues>
            -4.3352600932121277e-01 -8.0432546138763428e-01</leafValues></_>
        <_>
          <internalNodes>
            0 -1 13 3.7793945521116257e-03</internalNodes>
          <leafValues>
            -4.3647241592407227e-01 4.5367587357759476e-02</leafValues></_>
        <_>
          <internalNodes>
            0 -1 55 3.8971449248492718e-04</internalNodes>
          <leafValues>
            -2.4597881734371185e-01 2.5667181611061096e-01</leafValues></_>
        <_>
          <internalNodes>
            0 -1 116 8.4654837846755981e-03</internalNodes>
          <leafValues>
            -1.7941124737262726e-01 3.4751084446907043e-01</leafValues></_>
        <_>
          <internalNodes>
            0 -1 143 7.9688261030241847e-04</internalNodes>
          <leafValues>
            8.2166701555252075e-02 -7.4975502490997314e-01</leafValues></_>
        <_>
          <internalNodes>
            0 -1 123 1.1776069186453242e-05</internalNodes>
          <leafValues>
            -2.6472285389900208e-01 2.3398064076900482e-01</leafValues></_>
        <_>
          <internalNodes>
            0 -1 175 -4.9984827637672424e-03</internalNodes>
          <leafValues>
            4.1340377926826477e-01 -1.7319287359714508e-01</leafValues></_>
        <_>
          <internalNodes>
            0 -1 174 4.3638842180371284e-04</internalNodes>
          <leafValues>
            1.3721685111522675e-01 -7.1999865770339966e-01</leafValues></_>
        <_>
          <internalNodes>
            0 -1 79 6.5982033265754580e-04</internalNodes>
          <leafValues>
            -2.6467543840408325e-01 2.6204308867454529e-01</leafValues></_>
        <_>
          <internalNodes>
            0 -1 185 5.8908935170620680e-04</internalNodes>
          <leafValues>
            1.1245962977409363e-01 -7.4609416723251343e-01</leafValues></_>
        <_>
          <internalNodes>
            0 -1 136 -3.0253008008003235e-03</internalNodes>
          <leafValues>
            3.9152806997299194e-01 -1.8913599848747253e-01</leafValues></_></weakClassifiers></_>
    <!-- stage 17 -->
    <_>
      <maxWeakCount>11</maxWeakCount>
      <stageThreshold>-1.2325781583786011e+00</stageThreshold>
      <weakClassifiers>
        <_>
          <internalNodes>
            0 -1 11 -8.9418247342109680e-02</internalNodes>
          <leafValues>
            1. -7.5746923685073853e-01</leafValues></_>
        <_>
          <internalNodes>
            0 -1 81 -5.1047545857727528e-03</internalNodes>
          <leafValues>
            1.7917431890964508e-01 -3.6897188425064087e-01</leafValues></_>
        <_>
          <internalNodes>
            0 -1 18 -2.9354519210755825e-04</internalNodes>
          <leafValues>
            -4.9018037319183350e-01 1.2820474803447723e-01</leafValues></_>
        <_>
          <internalNodes>
            0 -1 12 8.9942023623734713e-04</internalNodes>
          <leafValues>
            -2.3088423907756805e-01 2.9832553863525391e-01</leafValues></_>
        <_>
          <internalNodes>
            0 -1 118 3.8534798659384251e-03</internalNodes>
          <leafValues>
            1.9322833418846130e-01 -4.7791117429733276e-01</leafValues></_>
        <_>
          <internalNodes>
            0 -1 106 1.5879585407674313e-04</internalNodes>
          <leafValues>
            9.3638561666011810e-02 -5.8425283432006836e-01</leafValues></_>
        <_>
          <internalNodes>
            0 -1 131 3.5983615089207888e-03</internalNodes>
          <leafValues>
            -1.4233805239200592e-01 4.7036629915237427e-01</leafValues></_>
        <_>
          <internalNodes>
            0 -1 126 -4.1664014570415020e-03</internalNodes>
          <leafValues>
            3.9449259638786316e-01 -2.4699714779853821e-01</leafValues></_>
        <_>
          <internalNodes>
            0 -1 183 1.0245582088828087e-02</internalNodes>
          <leafValues>
            8.9377112686634064e-02 -7.7414971590042114e-01</leafValues></_>
        <_>
          <internalNodes>
            0 -1 115 4.3416547123342752e-04</internalNodes>
          <leafValues>
            -2.4199679493904114e-01 3.0024191737174988e-01</leafValues></_>
        <_>
          <internalNodes>
            0 -1 170 -2.2263848222792149e-03</internalNodes>
          <leafValues>
            4.0972629189491272e-01 -1.7178313434123993e-01</leafValues></_></weakClassifiers></_>
    <!-- stage 18 -->
    <_>
      <maxWeakCount>14</maxWeakCount>
      <stageThreshold>-1.4632135629653931e+00</stageThreshold>
      <weakClassifiers>
        <_>
          <internalNodes>
            0 -1 80 -4.0689808130264282e-01</internalNodes>
          <leafValues>
            1. -7.5746923685073853e-01</leafValues></_>
        <_>
          <internalNodes>
            0 -1 178 2.2360635921359062e-03</internalNodes>
          <leafValues>
            -3.5189440846443176e-01 2.4463325738906860e-01</leafValues></_>
        <_>
          <internalNodes>
            0 -1 182 -1.0553684551268816e-03</internalNodes>
          <leafValues>
            2.6440343260765076e-01 -2.4865704774856567e-01</leafValues></_>
        <_>
          <internalNodes>
            0 -1 151 -4.0247102151624858e-04</internalNodes>
          <leafValues>
            3.4201273322105408e-01 -1.8634042143821716e-01</leafValues></_>
        <_>
          <internalNodes>
            0 -1 111 8.5258093895390630e-04</internalNodes>
          <leafValues>
            -2.2053083777427673e-01 2.8548491001129150e-01</leafValues></_>
        <_>
          <internalNodes>
            0 -1 6 -3.4524372313171625e-03</internalNodes>
          <leafValues>
            -6.1407220363616943e-01 1.1522474884986877e-01</leafValues></_>
        <_>
          <internalNodes>
            0 -1 101 8.3816883852705359e-04</internalNodes>
          <leafValues>
            2.0994690060615540e-01 -3.5794970393180847e-01</leafValues></_>
        <_>
          <internalNodes>
            0 -1 60 9.3199074035510421e-04</internalNodes>
          <leafValues>
            -1.4394395053386688e-01 4.5335280895233154e-01</leafValues></_>
        <_>
          <internalNodes>
            0 -1 39 7.9110941442195326e-05</internalNodes>
          <leafValues>
            1.1434843391180038e-01 -6.3009864091873169e-01</leafValues></_>
        <_>
          <internalNodes>
            0 -1 29 -1.1461282148957253e-02</internalNodes>
          <leafValues>
            -4.9558639526367188e-01 1.3483797013759613e-01</leafValues></_>
        <_>
          <internalNodes>
            0 -1 69 -1.7148032784461975e-03</internalNodes>
          <leafValues>
            3.7868773937225342e-01 -1.9228225946426392e-01</leafValues></_>
        <_>
          <internalNodes>
            0 -1 70 3.9178458973765373e-03</internalNodes>
          <leafValues>
            -1.8690027296543121e-01 3.8990479707717896e-01</leafValues></_>
        <_>
          <internalNodes>
            0 -1 124 -6.8965810351073742e-04</internalNodes>
          <leafValues>
            -6.3038766384124756e-01 1.1787517368793488e-01</leafValues></_>
        <_>
          <internalNodes>
            0 -1 72 4.1437029722146690e-04</internalNodes>
          <leafValues>
            -2.3138648271560669e-01 3.1811574101448059e-01</leafValues></_></weakClassifiers></_>
    <!-- stage 19 -->
    <_>
      <maxWeakCount>15</maxWeakCount>
      <stageThreshold>-1.5944094657897949e+00</stageThreshold>
      <weakClassifiers>
        <_>
          <internalNodes>
            0 -1 52 -8.8368654251098633e-02</internalNodes>
          <leafValues>
            7.7777779102325439e-01 -7.6035243272781372e-01</leafValues></_>
        <_>
          <internalNodes>
            0 -1 1 1.4239318668842316e-02</internalNodes>
          <leafValues>
            -3.5529121756553650e-01 2.0796774327754974e-01</leafValues></_>
        <_>
          <internalNodes>
            0 -1 34 4.4297100976109505e-03</internalNodes>
          <leafValues>
            5.1428485661745071e-02 -9.8133218288421631e-01</leafValues></_>
        <_>
          <internalNodes>
            0 -1 49 -8.2474318332970142e-04</internalNodes>
          <leafValues>
            5.0370997190475464e-01 -1.2150645256042480e-01</leafValues></_>
        <_>
          <internalNodes>
            0 -1 153 3.7049753591418266e-03</internalNodes>
          <leafValues>
            8.8615536689758301e-02 -6.8925857543945313e-01</leafValues></_>
        <_>
          <internalNodes>
            0 -1 167 1.6324253519997001e-03</internalNodes>
          <leafValues>
            -1.2600760161876678e-01 4.6668958663940430e-01</leafValues></_>
        <_>
          <internalNodes>
            0 -1 67 -2.6038682553917170e-03</internalNodes>
          <leafValues>
            4.0430396795272827e-01 -1.7368504405021667e-01</leafValues></_>
        <_>
          <internalNodes>
            0 -1 181 -1.1853612959384918e-03</internalNodes>
          <leafValues>
            -7.1660733222961426e-01 9.8209343850612640e-02</leafValues></_>
        <_>
          <internalNodes>
            0 -1 82 9.5068141818046570e-03</internalNodes>
          <leafValues>
            -1.8817616999149323e-01 4.5489722490310669e-01</leafValues></_>
        <_>
          <internalNodes>
            0 -1 109 -1.6900137066841125e-02</internalNodes>
          <leafValues>
            4.0142196416854858e-01 -1.9824770092964172e-01</leafValues></_>
        <_>
          <internalNodes>
            0 -1 96 -6.9327866658568382e-03</internalNodes>
          <leafValues>
            -8.3575028181076050e-01 8.9018113911151886e-02</leafValues></_>
        <_>
          <internalNodes>
            0 -1 68 1.2400655541568995e-03</internalNodes>
          <leafValues>
            -1.8785578012466431e-01 3.9633017778396606e-01</leafValues></_>
        <_>
          <internalNodes>
            0 -1 19 -1.1043357662856579e-03</internalNodes>
          <leafValues>
            -6.3091021776199341e-01 1.0799156129360199e-01</leafValues></_>
        <_>
          <internalNodes>
            0 -1 172 2.1222840587142855e-04</internalNodes>
          <leafValues>
            -2.5859791040420532e-01 2.8362858295440674e-01</leafValues></_>
        <_>
          <internalNodes>
            0 -1 166 -1.8468286725692451e-04</internalNodes>
          <leafValues>
            -6.0196322202682495e-01 1.1696627736091614e-01</leafValues></_></weakClassifiers></_></stages>
  <features>
    <_>
      <rects>
        <_>
          0 0 6 6 -1.</_>
        <_>
          0 0 3 3 2.</_>
        <_>
          3 3 3 3 2.</_></rects>
      <tilted>0</tilted></_>
    <_>
      <rects>
        <_>
          0 0 6 8 -1.</_>
        <_>
          0 0 3 4 2.</_>
        <_>
          3 4 3 4 2.</_></rects>
      <tilted>0</tilted></_>
    <_>
      <rects>
        <_>
          0 0 6 14 -1.</_>
        <_>
          3 0 3 14 2.</_></rects>
      <tilted>0</tilted></_>
    <_>
      <rects>
        <_>
          0 0 14 8 -1.</_>
        <_>
          0 0 7 4 2.</_>
        <_>
          7 4 7 4 2.</_></rects>
      <tilted>0</tilted></_>
    <_>
      <rects>
        <_>
          0 3 6 8 -1.</_>
        <_>
          3 3 3 8 2.</_></rects>
      <tilted>0</tilted></_>
    <_>
      <rects>
        <_>
          0 4 3 9 -1.</_>
        <_>
          0 7 3 3 3.</_></rects>
      <tilted>0</tilted></_>
    <_>
      <rects>
        <_>
          0 4 6 2 -1.</_>
        <_>
          0 5 6 1 2.</_></rects>
      <tilted>0</tilted></_>
    <_>
      <rects>
        <_>
          0 4 12 10 -1.</_>
        <_>
          6 4 6 10 2.</_></rects>
      <tilted>0</tilted></_>
    <_>
      <rects>
        <_>
          0 5 2 2 -1.</_>
        <_>
          0 5 1 1 2.</_>
        <_>
          1 6 1 1 2.</_></rects>
      <tilted>0</tilted></_>
    <_>
      <rects>
        <_>
          0 6 1 3 -1.</_>
        <_>
          0 7 1 1 3.</_></rects>
      <tilted>0</tilted></_>
    <_>
      <rects>
        <_>
          0 6 3 2 -1.</_>
        <_>
          0 7 3 1 2.</_></rects>
      <tilted>0</tilted></_>
    <_>
      <rects>
        <_>
          0 8 16 6 -1.</_>
        <_>
          0 8 8 3 2.</_>
        <_>
          8 11 8 3 2.</_></rects>
      <tilted>0</tilted></_>
    <_>
      <rects>
        <_>
          0 9 10 2 -1.</_>
        <_>
          0 9 5 1 2.</_>
        <_>
          5 10 5 1 2.</_></rects>
      <tilted>0</tilted></_>
    <_>
      <rects>
        <_>
          0 10 18 3 -1.</_>
        <_>
          6 10 6 3 3.</_></rects>
      <tilted>0</tilted></_>
    <_>
      <rects>
        <_>
          0 13 24 2 -1.</_>
        <_>
          0 13 12 1 2.</_>
        <_>
          12 14 12 1 2.</_></rects>
      <tilted>0</tilted></_>
    <_>
      <rects>
        <_>
          1 5 1 9 -1.</_>
        <_>
          1 8 1 3 3.</_></rects>
      <tilted>0</tilted></_>
    <_>
      <rects>
        <_>
          1 5 12 10 -1.</_>
        <_>
          7 5 6 10 2.</_></rects>
      <tilted>0</tilted></_>
    <_>
      <rects>
        <_>
          1 5 21 4 -1.</_>
        <_>
          8 5 7 4 3.</_></rects>
      <tilted>0</tilted></_>
    <_>
      <rects>
        <_>
          1 6 1 3 -1.</_>
        <_>
          1 7 1 1 3.</_></rects>
      <tilted>0</tilted></_>
    <_>
      <rects>
        <_>
          1 7 2 2 -1.</_>
        <_>
          1 8 2 1 2.</_></rects>
      <tilted>0</tilted></_>
    <_>
      <rects>
        <_>
          1 13 2 2 -1.</_>
        <_>
          2 13 1 2 2.</_></rects>
      <tilted>0</tilted></_>
    <_>
      <rects>
        <_>
          2 0 1 2 -1.</_>
        <_>
          2 1 1 1 2.</_></rects>
      <tilted>0</tilted></_>
    <_>
      <rects>
        <_>
          2 0 9 1 -1.</_>
        <_>
          5 0 3 1 3.</_></rects>
      <tilted>0</tilted></_>
    <_>
      <rects>
        <_>
          2 4 6 7 -1.</_>
        <_>
          5 4 3 7 2.</_></rects>
      <tilted>0</tilted></_>
    <_>
      <rects>
        <_>
          2 5 18 4 -1.</_>
        <_>
          8 5 6 4 3.</_></rects>
      <tilted>0</tilted></_>
    <_>
      <rects>
        <_>
          3 0 2 1 -1.</_>
        <_>
          4 0 1 1 2.</_></rects>
      <tilted>0</tilted></_>
    <_>
      <rects>
        <_>
          3 0 1 6 -1.</_>
        <_>
          3 3 1 3 2.</_></rects>
      <tilted>0</tilted></_>
    <_>
      <rects>
        <_>
          3 0 14 6 -1.</_>
        <_>
          3 2 14 2 3.</_></rects>
      <tilted>0</tilted></_>
    <_>
      <rects>
        <_>
          3 0 22 3 -1.</_>
        <_>
          3 1 22 1 3.</_></rects>
      <tilted>0</tilted></_>
    <_>
      <rects>
        <_>
          3 1 21 6 -1.</_>
        <_>
          10 1 7 6 3.</_></rects>
      <tilted>0</tilted></_>
    <_>
      <rects>
        <_>
          3 12 8 3 -1.</_>
        <_>
          3 13 8 1 3.</_></rects>
      <tilted>0</tilted></_>
    <_>
      <rects>
        <_>
          4 0 35 4 -1.</_>
        <_>
          4 2 35 2 2.</_></rects>
      <tilted>0</tilted></_>
    <_>
      <rects>
        <_>
          4 1 1 14 -1.</_>
        <_>
          4 8 1 7 2.</_></rects>
      <tilted>0</tilted></_>
    <_>
      <rects>
        <_>
          4 1 12 4 -1.</_>
        <_>
          8 1 4 4 3.</_></rects>
      <tilted>0</tilted></_>
    <_>
      <rects>
        <_>
          4 6 3 2 -1.</_>
        <_>
          4 7 3 1 2.</_></rects>
      <tilted>0</tilted></_>
    <_>
      <rects>
        <_>
          4 10 10 4 -1.</_>
        <_>
          4 12 10 2 2.</_></rects>
      <tilted>0</tilted></_>
    <_>
      <rects>
        <_>
          5 1 3 2 -1.</_>
        <_>
          6 1 1 2 3.</_></rects>
      <tilted>0</tilted></_>
    <_>
      <rects>
        <_>
          5 1 12 3 -1.</_>
        <_>
          9 1 4 3 3.</_></rects>
      <tilted>0</tilted></_>
    <_>
      <rects>
        <_>
          5 1 16 10 -1.</_>
        <_>
          5 1 8 5 2.</_>
        <_>
          13 6 8 5 2.</_></rects>
      <tilted>0</tilted></_>
    <_>
      <rects>
        <_>
          5 14 2 1 -1.</_>
        <_>
          6 14 1 1 2.</_></rects>
      <tilted>0</tilted></_>
    <_>
      <rects>
        <_>
          6 1 17 3 -1.</_>
        <_>
          6 2 17 1 3.</_></rects>
      <tilted>0</tilted></_>
    <_>
      <rects>
        <_>
          6 2 13 4 -1.</_>
        <_>
          6 4 13 2 2.</_></rects>
      <tilted>0</tilted></_>
    <_>
      <rects>
        <_>
          6 9 28 2 -1.</_>
        <_>
          6 10 28 1 2.</_></rects>
      <tilted>0</tilted></_>
    <_>
      <rects>
        <_>
          7 0 3 1 -1.</_>
        <_>
          8 0 1 1 3.</_></rects>
      <tilted>0</tilted></_>
    <_>
      <rects>
        <_>
          7 0 3 2 -1.</_>
        <_>
          8 0 1 2 3.</_></rects>
      <tilted>0</tilted></_>
    <_>
      <rects>
        <_>
          7 0 24 12 -1.</_>
        <_>
          19 0 12 12 2.</_></rects>
      <tilted>0</tilted></_>
    <_>
      <rects>
        <_>
          7 0 31 2 -1.</_>
        <_>
          7 1 31 1 2.</_></rects>
      <tilted>0</tilted></_>
    <_>
      <rects>
        <_>
          7 2 7 9 -1.</_>
        <_>
          7 5 7 3 3.</_></rects>
      <tilted>0</tilted></_>
    <_>
      <rects>
        <_>
          7 3 3 7 -1.</_>
        <_>
          8 3 1 7 3.</_></rects>
      <tilted>0</tilted></_>
    <_>
      <rects>
        <_>
          7 4 1 2 -1.</_>
        <_>
          7 5 1 1 2.</_></rects>
      <tilted>0</tilted></_>
    <_>
      <rects>
        <_>
          7 5 15 10 -1.</_>
        <_>
          12 5 5 10 3.</_></rects>
      <tilted>0</tilted></_>
    <_>
      <rects>
        <_>
          7 6 3 2 -1.</_>
        <_>
          8 6 1 2 3.</_></rects>
      <tilted>0</tilted></_>
    <_>
      <rects>
        <_>
          7 8 27 2 -1.</_>
        <_>
          7 9 27 1 2.</_></rects>
      <tilted>0</tilted></_>
    <_>
      <rects>
        <_>
          8 1 5 2 -1.</_>
        <_>
          8 2 5 1 2.</_></rects>
      <tilted>0</tilted></_>
    <_>
      <rects>
        <_>
          8 2 12 3 -1.</_>
        <_>
          8 3 12 1 3.</_></rects>
      <tilted>0</tilted></_>
    <_>
      <rects>
        <_>
          8 3 1 2 -1.</_>
        <_>
          8 4 1 1 2.</_></rects>
      <tilted>0</tilted></_>
    <_>
      <rects>
        <_>
          8 4 2 6 -1.</_>
        <_>
          8 4 1 3 2.</_>
        <_>
          9 7 1 3 2.</_></rects>
      <tilted>0</tilted></_>
    <_>
      <rects>
        <_>
          8 5 3 4 -1.</_>
        <_>
          9 5 1 4 3.</_></rects>
      <tilted>0</tilted></_>
    <_>
      <rects>
        <_>
          8 6 3 1 -1.</_>
        <_>
          9 6 1 1 3.</_></rects>
      <tilted>0</tilted></_>
    <_>
      <rects>
        <_>
          8 6 3 2 -1.</_>
        <_>
          9 6 1 2 3.</_></rects>
      <tilted>0</tilted></_>
    <_>
      <rects>
        <_>
          8 12 4 2 -1.</_>
        <_>
          8 13 4 1 2.</_></rects>
      <tilted>0</tilted></_>
    <_>
      <rects>
        <_>
          8 12 12 3 -1.</_>
        <_>
          14 12 6 3 2.</_></rects>
      <tilted>0</tilted></_>
    <_>
      <rects>
        <_>
          8 14 2 1 -1.</_>
        <_>
          9 14 1 1 2.</_></rects>
      <tilted>0</tilted></_>
    <_>
      <rects>
        <_>
          9 0 19 15 -1.</_>
        <_>
          9 5 19 5 3.</_></rects>
      <tilted>0</tilted></_>
    <_>
      <rects>
        <_>
          9 2 3 9 -1.</_>
        <_>
          10 2 1 9 3.</_></rects>
      <tilted>0</tilted></_>
    <_>
      <rects>
        <_>
          9 2 21 12 -1.</_>
        <_>
          9 6 21 4 3.</_></rects>
      <tilted>0</tilted></_>
    <_>
      <rects>
        <_>
          9 3 24 9 -1.</_>
        <_>
          9 6 24 3 3.</_></rects>
      <tilted>0</tilted></_>
    <_>
      <rects>
        <_>
          9 4 2 6 -1.</_>
        <_>
          9 4 1 3 2.</_>
        <_>
          10 7 1 3 2.</_></rects>
      <tilted>0</tilted></_>
    <_>
      <rects>
        <_>
          9 5 2 4 -1.</_>
        <_>
          9 5 1 2 2.</_>
        <_>
          10 7 1 2 2.</_></rects>
      <tilted>0</tilted></_>
    <_>
      <rects>
        <_>
          9 5 2 3 -1.</_>
        <_>
          10 5 1 3 2.</_></rects>
      <tilted>0</tilted></_>
    <_>
      <rects>
        <_>
          9 5 3 10 -1.</_>
        <_>
          10 5 1 10 3.</_></rects>
      <tilted>0</tilted></_>
    <_>
      <rects>
        <_>
          9 6 3 4 -1.</_>
        <_>
          10 6 1 4 3.</_></rects>
      <tilted>0</tilted></_>
    <_>
      <rects>
        <_>
          9 12 8 2 -1.</_>
        <_>
          9 12 4 1 2.</_>
        <_>
          13 13 4 1 2.</_></rects>
      <tilted>0</tilted></_>
    <_>
      <rects>
        <_>
          10 0 6 3 -1.</_>
        <_>
          12 0 2 3 3.</_></rects>
      <tilted>0</tilted></_>
    <_>
      <rects>
        <_>
          10 0 22 15 -1.</_>
        <_>
          10 5 22 5 3.</_></rects>
      <tilted>0</tilted></_>
    <_>
      <rects>
        <_>
          10 1 3 1 -1.</_>
        <_>
          11 1 1 1 3.</_></rects>
      <tilted>0</tilted></_>
    <_>
      <rects>
        <_>
          10 1 6 1 -1.</_>
        <_>
          12 1 2 1 3.</_></rects>
      <tilted>0</tilted></_>
    <_>
      <rects>
        <_>
          10 1 18 2 -1.</_>
        <_>
          10 2 18 1 2.</_></rects>
      <tilted>0</tilted></_>
    <_>
      <rects>
        <_>
          10 1 30 4 -1.</_>
        <_>
          10 3 30 2 2.</_></rects>
      <tilted>0</tilted></_>
    <_>
      <rects>
        <_>
          10 5 2 3 -1.</_>
        <_>
          11 5 1 3 2.</_></rects>
      <tilted>0</tilted></_>
    <_>
      <rects>
        <_>
          10 5 26 8 -1.</_>
        <_>
          10 9 26 4 2.</_></rects>
      <tilted>0</tilted></_>
    <_>
      <rects>
        <_>
          10 9 3 3 -1.</_>
        <_>
          10 10 3 1 3.</_></rects>
      <tilted>0</tilted></_>
    <_>
      <rects>
        <_>
          11 0 24 2 -1.</_>
        <_>
          11 1 24 1 2.</_></rects>
      <tilted>0</tilted></_>
    <_>
      <rects>
        <_>
          11 1 3 1 -1.</_>
        <_>
          12 1 1 1 3.</_></rects>
      <tilted>0</tilted></_>
    <_>
      <rects>
        <_>
          11 3 3 10 -1.</_>
        <_>
          12 3 1 10 3.</_></rects>
      <tilted>0</tilted></_>
    <_>
      <rects>
        <_>
          11 5 3 1 -1.</_>
        <_>
          12 5 1 1 3.</_></rects>
      <tilted>0</tilted></_>
    <_>
      <rects>
        <_>
          11 7 3 2 -1.</_>
        <_>
          12 7 1 2 3.</_></rects>
      <tilted>0</tilted></_>
    <_>
      <rects>
        <_>
          11 9 8 3 -1.</_>
        <_>
          11 10 8 1 3.</_></rects>
      <tilted>0</tilted></_>
    <_>
      <rects>
        <_>
          11 13 9 2 -1.</_>
        <_>
          14 13 3 2 3.</_></rects>
      <tilted>0</tilted></_>
    <_>
      <rects>
        <_>
          11 14 3 1 -1.</_>
        <_>
          12 14 1 1 3.</_></rects>
      <tilted>0</tilted></_>
    <_>
      <rects>
        <_>
          11 14 9 1 -1.</_>
        <_>
          14 14 3 1 3.</_></rects>
      <tilted>0</tilted></_>
    <_>
      <rects>
        <_>
          12 0 18 8 -1.</_>
        <_>
          12 0 9 4 2.</_>
        <_>
          21 4 9 4 2.</_></rects>
      <tilted>0</tilted></_>
    <_>
      <rects>
        <_>
          12 1 6 12 -1.</_>
        <_>
          12 1 3 6 2.</_>
        <_>
          15 7 3 6 2.</_></rects>
      <tilted>0</tilted></_>
    <_>
      <rects>
        <_>
          12 1 18 14 -1.</_>
        <_>
          21 1 9 14 2.</_></rects>
      <tilted>0</tilted></_>
    <_>
      <rects>
        <_>
          12 3 3 9 -1.</_>
        <_>
          13 3 1 9 3.</_></rects>
      <tilted>0</tilted></_>
    <_>
      <rects>
        <_>
          12 3 3 12 -1.</_>
        <_>
          13 3 1 12 3.</_></rects>
      <tilted>0</tilted></_>
    <_>
      <rects>
        <_>
          12 3 9 2 -1.</_>
        <_>
          15 3 3 2 3.</_></rects>
      <tilted>0</tilted></_>
    <_>
      <rects>
        <_>
          12 4 3 7 -1.</_>
        <_>
          13 4 1 7 3.</_></rects>
      <tilted>0</tilted></_>
    <_>
      <rects>
        <_>
          12 5 3 4 -1.</_>
        <_>
          13 5 1 4 3.</_></rects>
      <tilted>0</tilted></_>
    <_>
      <rects>
        <_>
          12 5 3 5 -1.</_>
        <_>
          13 5 1 5 3.</_></rects>
      <tilted>0</tilted></_>
    <_>
      <rects>
        <_>
          12 9 7 3 -1.</_>
        <_>
          12 10 7 1 3.</_></rects>
      <tilted>0</tilted></_>
    <_>
      <rects>
        <_>
          13 2 6 3 -1.</_>
        <_>
          15 2 2 3 3.</_></rects>
      <tilted>0</tilted></_>
    <_>
      <rects>
        <_>
          13 4 19 10 -1.</_>
        <_>
          13 9 19 5 2.</_></rects>
      <tilted>0</tilted></_>
    <_>
      <rects>
        <_>
          13 5 4 4 -1.</_>
        <_>
          13 5 2 2 2.</_>
        <_>
          15 7 2 2 2.</_></rects>
      <tilted>0</tilted></_>
    <_>
      <rects>
        <_>
          13 11 18 4 -1.</_>
        <_>
          19 11 6 4 3.</_></rects>
      <tilted>0</tilted></_>
    <_>
      <rects>
        <_>
          14 0 13 2 -1.</_>
        <_>
          14 1 13 1 2.</_></rects>
      <tilted>0</tilted></_>
    <_>
      <rects>
        <_>
          14 1 3 1 -1.</_>
        <_>
          15 1 1 1 3.</_></rects>
      <tilted>0</tilted></_>
    <_>
      <rects>
        <_>
          14 4 3 6 -1.</_>
        <_>
          15 4 1 6 3.</_></rects>
      <tilted>0</tilted></_>
    <_>
      <rects>
        <_>
          14 12 3 2 -1.</_>
        <_>
          15 12 1 2 3.</_></rects>
      <tilted>0</tilted></_>
    <_>
      <rects>
        <_>
          15 0 25 3 -1.</_>
        <_>
          15 1 25 1 3.</_></rects>
      <tilted>0</tilted></_>
    <_>
      <rects>
        <_>
          15 3 4 2 -1.</_>
        <_>
          15 4 4 1 2.</_></rects>
      <tilted>0</tilted></_>
    <_>
      <rects>
        <_>
          15 5 2 6 -1.</_>
        <_>
          16 5 1 6 2.</_></rects>
      <tilted>0</tilted></_>
    <_>
      <rects>
        <_>
          15 7 8 8 -1.</_>
        <_>
          19 7 4 8 2.</_></rects>
      <tilted>0</tilted></_>
    <_>
      <rects>
        <_>
          16 0 24 15 -1.</_>
        <_>
          24 0 8 15 3.</_></rects>
      <tilted>0</tilted></_>
    <_>
      <rects>
        <_>
          16 3 3 7 -1.</_>
        <_>
          17 3 1 7 3.</_></rects>
      <tilted>0</tilted></_>
    <_>
      <rects>
        <_>
          16 4 2 4 -1.</_>
        <_>
          16 4 1 2 2.</_>
        <_>
          17 6 1 2 2.</_></rects>
      <tilted>0</tilted></_>
    <_>
      <rects>
        <_>
          16 4 8 3 -1.</_>
        <_>
          16 5 8 1 3.</_></rects>
      <tilted>0</tilted></_>
    <_>
      <rects>
        <_>
          16 5 3 4 -1.</_>
        <_>
          17 5 1 4 3.</_></rects>
      <tilted>0</tilted></_>
    <_>
      <rects>
        <_>
          16 9 9 6 -1.</_>
        <_>
          19 9 3 6 3.</_></rects>
      <tilted>0</tilted></_>
    <_>
      <rects>
        <_>
          16 14 6 1 -1.</_>
        <_>
          18 14 2 1 3.</_></rects>
      <tilted>0</tilted></_>
    <_>
      <rects>
        <_>
          17 4 3 5 -1.</_>
        <_>
          18 4 1 5 3.</_></rects>
      <tilted>0</tilted></_>
    <_>
      <rects>
        <_>
          17 4 3 7 -1.</_>
        <_>
          18 4 1 7 3.</_></rects>
      <tilted>0</tilted></_>
    <_>
      <rects>
        <_>
          18 7 6 8 -1.</_>
        <_>
          18 11 6 4 2.</_></rects>
      <tilted>0</tilted></_>
    <_>
      <rects>
        <_>
          18 9 3 2 -1.</_>
        <_>
          19 9 1 2 3.</_></rects>
      <tilted>0</tilted></_>
    <_>
      <rects>
        <_>
          18 10 2 5 -1.</_>
        <_>
          19 10 1 5 2.</_></rects>
      <tilted>0</tilted></_>
    <_>
      <rects>
        <_>
          18 14 4 1 -1.</_>
        <_>
          20 14 2 1 2.</_></rects>
      <tilted>0</tilted></_>
    <_>
      <rects>
        <_>
          19 2 14 2 -1.</_>
        <_>
          19 3 14 1 2.</_></rects>
      <tilted>0</tilted></_>
    <_>
      <rects>
        <_>
          19 8 12 5 -1.</_>
        <_>
          23 8 4 5 3.</_></rects>
      <tilted>0</tilted></_>
    <_>
      <rects>
        <_>
          20 0 5 2 -1.</_>
        <_>
          20 1 5 1 2.</_></rects>
      <tilted>0</tilted></_>
    <_>
      <rects>
        <_>
          21 4 3 7 -1.</_>
        <_>
          22 4 1 7 3.</_></rects>
      <tilted>0</tilted></_>
    <_>
      <rects>
        <_>
          22 1 3 11 -1.</_>
        <_>
          23 1 1 11 3.</_></rects>
      <tilted>0</tilted></_>
    <_>
      <rects>
        <_>
          22 2 3 2 -1.</_>
        <_>
          22 3 3 1 2.</_></rects>
      <tilted>0</tilted></_>
    <_>
      <rects>
        <_>
          22 4 2 4 -1.</_>
        <_>
          22 4 1 2 2.</_>
        <_>
          23 6 1 2 2.</_></rects>
      <tilted>0</tilted></_>
    <_>
      <rects>
        <_>
          22 4 6 2 -1.</_>
        <_>
          22 4 3 1 2.</_>
        <_>
          25 5 3 1 2.</_></rects>
      <tilted>0</tilted></_>
    <_>
      <rects>
        <_>
          22 5 3 4 -1.</_>
        <_>
          23 5 1 4 3.</_></rects>
      <tilted>0</tilted></_>
    <_>
      <rects>
        <_>
          22 5 3 5 -1.</_>
        <_>
          23 5 1 5 3.</_></rects>
      <tilted>0</tilted></_>
    <_>
      <rects>
        <_>
          22 7 4 3 -1.</_>
        <_>
          22 8 4 1 3.</_></rects>
      <tilted>0</tilted></_>
    <_>
      <rects>
        <_>
          22 9 8 6 -1.</_>
        <_>
          26 9 4 6 2.</_></rects>
      <tilted>0</tilted></_>
    <_>
      <rects>
        <_>
          22 13 3 2 -1.</_>
        <_>
          23 13 1 2 3.</_></rects>
      <tilted>0</tilted></_>
    <_>
      <rects>
        <_>
          23 6 3 1 -1.</_>
        <_>
          24 6 1 1 3.</_></rects>
      <tilted>0</tilted></_>
    <_>
      <rects>
        <_>
          23 12 3 3 -1.</_>
        <_>
          24 12 1 3 3.</_></rects>
      <tilted>0</tilted></_>
    <_>
      <rects>
        <_>
          23 14 6 1 -1.</_>
        <_>
          25 14 2 1 3.</_></rects>
      <tilted>0</tilted></_>
    <_>
      <rects>
        <_>
          24 0 9 4 -1.</_>
        <_>
          27 0 3 4 3.</_></rects>
      <tilted>0</tilted></_>
    <_>
      <rects>
        <_>
          24 3 2 1 -1.</_>
        <_>
          25 3 1 1 2.</_></rects>
      <tilted>0</tilted></_>
    <_>
      <rects>
        <_>
          24 6 3 1 -1.</_>
        <_>
          25 6 1 1 3.</_></rects>
      <tilted>0</tilted></_>
    <_>
      <rects>
        <_>
          24 9 3 3 -1.</_>
        <_>
          24 10 3 1 3.</_></rects>
      <tilted>0</tilted></_>
    <_>
      <rects>
        <_>
          25 0 8 9 -1.</_>
        <_>
          29 0 4 9 2.</_></rects>
      <tilted>0</tilted></_>
    <_>
      <rects>
        <_>
          25 1 6 1 -1.</_>
        <_>
          27 1 2 1 3.</_></rects>
      <tilted>0</tilted></_>
    <_>
      <rects>
        <_>
          25 2 2 2 -1.</_>
        <_>
          25 2 1 1 2.</_>
        <_>
          26 3 1 1 2.</_></rects>
      <tilted>0</tilted></_>
    <_>
      <rects>
        <_>
          25 2 10 1 -1.</_>
        <_>
          30 2 5 1 2.</_></rects>
      <tilted>0</tilted></_>
    <_>
      <rects>
        <_>
          25 5 3 3 -1.</_>
        <_>
          26 5 1 3 3.</_></rects>
      <tilted>0</tilted></_>
    <_>
      <rects>
        <_>
          25 6 2 2 -1.</_>
        <_>
          25 6 1 1 2.</_>
        <_>
          26 7 1 1 2.</_></rects>
      <tilted>0</tilted></_>
    <_>
      <rects>
        <_>
          25 10 5 3 -1.</_>
        <_>
          25 11 5 1 3.</_></rects>
      <tilted>0</tilted></_>
    <_>
      <rects>
        <_>
          26 1 9 2 -1.</_>
        <_>
          29 1 3 2 3.</_></rects>
      <tilted>0</tilted></_>
    <_>
      <rects>
        <_>
          26 2 14 2 -1.</_>
        <_>
          26 2 7 1 2.</_>
        <_>
          33 3 7 1 2.</_></rects>
      <tilted>0</tilted></_>
    <_>
      <rects>
        <_>
          26 5 3 7 -1.</_>
        <_>
          27 5 1 7 3.</_></rects>
      <tilted>0</tilted></_>
    <_>
      <rects>
        <_>
          26 5 14 8 -1.</_>
        <_>
          26 5 7 4 2.</_>
        <_>
          33 9 7 4 2.</_></rects>
      <tilted>0</tilted></_>
    <_>
      <rects>
        <_>
          26 6 7 8 -1.</_>
        <_>
          26 10 7 4 2.</_></rects>
      <tilted>0</tilted></_>
    <_>
      <rects>
        <_>
          26 11 8 2 -1.</_>
        <_>
          26 12 8 1 2.</_></rects>
      <tilted>0</tilted></_>
    <_>
      <rects>
        <_>
          27 0 2 10 -1.</_>
        <_>
          27 0 1 5 2.</_>
        <_>
          28 5 1 5 2.</_></rects>
      <tilted>0</tilted></_>
    <_>
      <rects>
        <_>
          27 1 3 1 -1.</_>
        <_>
          28 1 1 1 3.</_></rects>
      <tilted>0</tilted></_>
    <_>
      <rects>
        <_>
          27 4 3 5 -1.</_>
        <_>
          28 4 1 5 3.</_></rects>
      <tilted>0</tilted></_>
    <_>
      <rects>
        <_>
          27 4 3 7 -1.</_>
        <_>
          28 4 1 7 3.</_></rects>
      <tilted>0</tilted></_>
    <_>
      <rects>
        <_>
          27 8 1 2 -1.</_>
        <_>
          27 9 1 1 2.</_></rects>
      <tilted>0</tilted></_>
    <_>
      <rects>
        <_>
          28 4 12 7 -1.</_>
        <_>
          34 4 6 7 2.</_></rects>
      <tilted>0</tilted></_>
    <_>
      <rects>
        <_>
          28 6 3 5 -1.</_>
        <_>
          29 6 1 5 3.</_></rects>
      <tilted>0</tilted></_>
    <_>
      <rects>
        <_>
          28 12 3 1 -1.</_>
        <_>
          29 12 1 1 3.</_></rects>
      <tilted>0</tilted></_>
    <_>
      <rects>
        <_>
          28 13 10 2 -1.</_>
        <_>
          28 13 5 1 2.</_>
        <_>
          33 14 5 1 2.</_></rects>
      <tilted>0</tilted></_>
    <_>
      <rects>
        <_>
          29 1 2 2 -1.</_>
        <_>
          29 1 1 1 2.</_>
        <_>
          30 2 1 1 2.</_></rects>
      <tilted>0</tilted></_>
    <_>
      <rects>
        <_>
          29 8 9 2 -1.</_>
        <_>
          32 8 3 2 3.</_></rects>
      <tilted>0</tilted></_>
    <_>
      <rects>
        <_>
          30 1 2 3 -1.</_>
        <_>
          30 2 2 1 3.</_></rects>
      <tilted>0</tilted></_>
    <_>
      <rects>
        <_>
          30 2 10 8 -1.</_>
        <_>
          35 2 5 8 2.</_></rects>
      <tilted>0</tilted></_>
    <_>
      <rects>
        <_>
          30 4 1 2 -1.</_>
        <_>
          30 5 1 1 2.</_></rects>
      <tilted>0</tilted></_>
    <_>
      <rects>
        <_>
          30 6 10 8 -1.</_>
        <_>
          30 6 5 4 2.</_>
        <_>
          35 10 5 4 2.</_></rects>
      <tilted>0</tilted></_>
    <_>
      <rects>
        <_>
          31 13 3 2 -1.</_>
        <_>
          32 13 1 2 3.</_></rects>
      <tilted>0</tilted></_>
    <_>
      <rects>
        <_>
          32 0 8 4 -1.</_>
        <_>
          32 0 4 2 2.</_>
        <_>
          36 2 4 2 2.</_></rects>
      <tilted>0</tilted></_>
    <_>
      <rects>
        <_>
          32 1 8 6 -1.</_>
        <_>
          32 1 4 3 2.</_>
        <_>
          36 4 4 3 2.</_></rects>
      <tilted>0</tilted></_>
    <_>
      <rects>
        <_>
          32 7 2 1 -1.</_>
        <_>
          33 7 1 1 2.</_></rects>
      <tilted>0</tilted></_>
    <_>
      <rects>
        <_>
          32 11 8 2 -1.</_>
        <_>
          32 11 4 1 2.</_>
        <_>
          36 12 4 1 2.</_></rects>
      <tilted>0</tilted></_>
    <_>
      <rects>
        <_>
          32 13 3 2 -1.</_>
        <_>
          33 13 1 2 3.</_></rects>
      <tilted>0</tilted></_>
    <_>
      <rects>
        <_>
          35 0 3 3 -1.</_>
        <_>
          35 1 3 1 3.</_></rects>
      <tilted>0</tilted></_>
    <_>
      <rects>
        <_>
          35 7 4 2 -1.</_>
        <_>
          35 7 2 1 2.</_>
        <_>
          37 8 2 1 2.</_></rects>
      <tilted>0</tilted></_>
    <_>
      <rects>
        <_>
          36 11 3 4 -1.</_>
        <_>
          36 13 3 2 2.</_></rects>
      <tilted>0</tilted></_>
    <_>
      <rects>
        <_>
          37 3 3 6 -1.</_>
        <_>
          37 5 3 2 3.</_></rects>
      <tilted>0</tilted></_>
    <_>
      <rects>
        <_>
          37 8 1 2 -1.</_>
        <_>
          37 9 1 1 2.</_></rects>
      <tilted>0</tilted></_>
    <_>
      <rects>
        <_>
          38 6 2 2 -1.</_>
        <_>
          38 6 1 1 2.</_>
        <_>
          39 7 1 1 2.</_></rects>
      <tilted>0</tilted></_>
    <_>
      <rects>
        <_>
          39 8 1 2 -1.</_>
        <_>
          39 9 1 1 2.</_></rects>
      <tilted>0</tilted></_></features></cascade>
</opencv_storage>
